0.764384616302257
-0.59332514365365
0.206299007854654
-1.40234486355867
0.829761239436507
-0.186004524124135
-0.266259473382944
-0.568570823118798
-1.18647431626263
0.0484339656603534
-0.852862990498767
1.66854194231233
-1.40258042320417
-2.59840136671042
-2.05271582126853
1.76350567299569
-1.5630949637896
-1.90056595446436
-1.60971672206493
-0.939047875839865
-2.19147142665259
-1.77295267460145
2.09399326559436
1.85375335114459
-2.02138671939532
-0.546360517684221
-3.66572224644786
1.90666172619068
1.09693634902002
-0.163949149812139
1.19976364661556
1.6361111732758
0.349612429806976
1.99442452235064
0.136049973182521
1.21289886819792
0.509541795529888
-0.78279522292101
0.947492841715985
0.323408538759938
-1.16697834030257
1.84539735810905
0.484261710673262
1.44002354800257
-1.37745841355914
0.812217928456023
-0.870170642890884
-2.11172510816639
0.746939997753598
2.42122603413503
-0.584133891801918
1.55161105346778
-2.01367199433694
-1.91147541487154
1.91604892248993
-1.1039615709068
0.531469399966775
-0.734642304346781
-0.475563833729624
-0.594005391706859
-1.00879312716875
-0.433219927777471
-0.226267943919197
0.777996001391709
1.29562687712968
-1.24590163035755
-0.972707308317464
-1.22244274431187
-1.41168205363825
-0.587399730835407
-1.24606694560604
-0.329522606629873
0.345831605397738
-0.409532451811862
-1.53268562716639
-1.76722191766747
0.935428719442621
-1.70413344612328
-0.640108060087965
0.303741003682813
-0.500546726407054
1.76798070000968
-1.23014588102842
2.20555146944298
-1.69429632503122
1.92404503389187
0.772241638068231
1.07231800628517
1.44309390864528
0.922355802417433
-0.523037189818392
-1.66113333589507
1.75335931136464
1.81617511883919
-1.07523244882857
0.368916043365664
-0.414443432320093
1.54302295966209
-2.399679361053
-0.949512241670471
-0.35112047833638
1.60848966149997
-1.93793634969805
-0.407154785057529
0.977539013280235
1.10432240648984
-0.94061271861182
0.282155741253768
1.55377436093564
-1.68622816334449
-0.492579863708537
-1.12748867276376
1.82288452741687
-2.12057693553518
-1.69028448824247
-0.392170150103072
-0.747536467317345
0.61618362056796
0.0803512362106495
1.58042753217568
0.0388067592228922
0.762941406103926
-0.673792040121176
-0.915028896091405
0.90777154611426
-1.75050894381365
0.547003911168663
0.656685151554624
-0.993424774522137
-0.15338430198029
-0.107334066600737
1.67566784351111
-1.59438677260782
-1.19602854308569
-0.739913411209781
-0.149592422082805
2.3862818022283
1.34080050788035
-1.03149328383588
-0.931979364938659
0.584538547746368
1.99898301510754
0.414856846184969
1.0451450357316
-0.525937572461683
-0.650787118488008
-1.01550009754942
0.514104924776205
1.29687594130397
1.5141781799165
-0.64699234753403
1.37338712556808
-1.05641955282372
-1.34227847955306
1.00212340583225
0.629361472063718
-0.077195629425259
0.6802413805095
-0.0608929894431108
0.395510624274139
-1.2834928486098
0.392622915655632
-0.294829362051408
-0.33087432565611
0.273062314504235
0.350043625130681
-1.90383578796845
0.948449533345554
1.76610880883224
0.751624216606158
-0.855946989249179
-0.0620008144392488
-1.02969214158295
0.0692948215312826
-1.23404774585127
0.100545550699939
-2.02701003518398
-0.204075366812045
1.51811892667956
0.0190919653454655
0.810176073967078
1.85912075166044
0.903581963308896
-1.14346251198172
-1.61298808022342
-0.199801334518281
0.0574759745041392
1.32936639662841
-0.691974972655904
0.134941270453804
1.40502604463482
-0.886081492633337
-0.747049596778557
0.106018936320751
-2.22853313232951
-1.68892995799662
-0.10005929000888
-0.906838215802782
-0.280181608734598
1.44060036840814
-1.70215585464296
-0.33599114116244
1.13264934985672
-1.27791362319716
0.378058146038649
1.07762544918645
-0.0347728076579637
1.10234166189119
1.75300799913729
-1.22726445763955
0.0181626648016143
-2.13148220282578
1.01041481784436
1.64928264684876
1.26736542820906
-0.567666825039649
0.687991788846938
-1.31435066881599
-1.34724388445181
1.3593175948202
1.95450074868105
-0.855511885107637
-0.483909395403614
-0.451069173450212
1.82695499877364
-1.4209664815456
-1.63646371998735
0.670736903010873
-0.271698550015824
-1.71578364601904
1.9790072385408
0.857276949769642
-1.61650893820758
1.70411953932308
-0.238409688011155
-0.183891113162237
-1.94957024580617
-0.0362241062695638
1.10254691026732
-0.771357118335626
-1.98297644882668
0.259781789519676
0.828042453190609
-1.89659850754967
1.12247109212334
0.573342657813329
-0.820803432823571
-1.00361658681173
0.485278140059351
-0.414889887840748
-1.21015790644239
-1.6575436194491
-1.90615791645821
-0.206657750473582
1.48530566279405
1.09790300647183
-2.20830058778119
-0.582953611594801
-0.698458739453465
-0.670910613694129
-0.228123548105044
1.19357018834385
-1.00144537371173
0.995353661971399
-0.785236720420931
0.803594095403784
0.818661959784142
1.01551857078568
-0.0857406051907567
-0.409038305527887
-1.62007367460956
-1.2248742864808
-0.400906638987478
0.544359825975413
0.894650327708745
-2.12666554590558
-0.581728978795511
-1.13414416219729
-1.29338649297038
-2.04739141497108
0.698055388445665
0.680166302845958
-2.34271271948718
-0.223222401637912
0.224484236156286
0.0412412157278428
0.0252279351539288
0.245728499671762
1.25207941517247
-0.493550872522519
-1.44735943328979
-0.317841370248724
