-1.27802674938287
-0.538955279936454
-1.31850865702903
-0.812666633477366
-0.802347877475892
-0.185911514389391
-0.777489160696165
-1.92415741808805
2.68950097736963
-1.25350203393939
-1.16816861319079
-2.27956287925276
-2.41460274519057
0.886306311439913
-0.200396874642054
1.90364927563805
1.42527679278892
-0.763833419058591
-1.27635601094642
-1.52075233045462
-0.661308778384533
-0.77040714597078
-0.734904335800892
1.06935889306062
1.82417043510234
0.276015171000324
0.183777888047503
-2.05248281935079
0.469902407036971
-1.52168233846103
-1.61718819236965
2.35845794448247
-0.222445452208246
0.35601136910246
1.93154584855977
-1.28188216769865
-1.40272706644812
-0.813631673927941
2.94072478511416
2.0318096833741
-0.827250545405121
1.65338723920133
1.92918347941052
1.09523972359067
0.814016512726516
1.99271369288908
-0.640491122511864
-0.398235692576982
-0.445241209398448
1.45143199406543
0.616599166025601
0.108909384639803
-3.83414818339461
-0.921052472600101
-1.10842781786167
3.2179980709968
-2.04408149104028
-0.424810150258572
-1.01206484316519
0.066803070360691
1.4260355887077
-0.932702291351777
-1.17054421236669
1.64540957837016
-0.575216054077755
-0.672209085466618
-1.23325780523885
-0.178282466246532
0.139094387429828
-1.30620856443682
0.768561540816057
0.106318035269537
-0.460405123184202
-1.42597100263148
1.34895870533446
-0.373009357171486
-1.32800052521002
0.0169390850636148
-1.50547935057125
-0.467938597086782
-0.981277895401426
-1.60497038188503
0.735229906998082
2.09448826330155
-0.022783064428003
0.759972723839997
1.55936393148736
1.73148660386317
-0.490716477561846
-2.0545750311434
-1.18153143517946
1.09989408134726
1.3399084410138
-1.19972502151906
-1.36108111366882
-1.715851415578
1.11306077879514
-1.49598074885987
-0.386179133004497
-0.22916920971703
-0.0692943625751147
0.847899329328384
1.77251014530197
-1.41186995949151
-1.85929131547909
-1.58142199131411
-1.41827385460963
0.920326153975466
-0.0522029257341319
1.33438016520473
0.917019670418113
-0.0584950467961607
-0.934979635948169
-2.0784393165283
-0.817717404001259
0.690714835039009
0.286358628988809
-1.60793763691344
-0.447624705194566
0.589413268118585
-0.0999636956106197
-0.687857593729558
-1.3082898806665
-0.0494567901555332
-1.93695221564831
-1.62295635813616
0.336170168265369
-1.4638414764315
-1.17142880503775
0.618828135516
0.316852946151287
-0.901292892978753
-1.49018327912714
1.07453455573276
2.01241507886119
0.511838049255695
-1.16084010779468
-0.187444820644946
1.62249813749363
-0.449802518864829
0.335674405293388
-1.54699952515138
0.112421428876746
-0.129291737708473
-0.795687969657257
0.822636989545514
-0.0305635271666727
1.44902466349509
2.3402379674011
-0.44579721398931
-0.505749375764614
0.500468163036373
1.14498108405031
1.24881860322071
1.83421878284067
-1.38167272180112
-0.217779981036455
-0.317111461416314
-1.42797648502185
-1.43167506701862
-0.0866656397587647
1.12248184431677
-0.104791907983422
0.864394876718938
-0.893118889453413
-0.225762634999971
-0.433249738043458
0.447156605439905
-1.92576213960564
0.536101262923068
-0.164045525198437
-1.35580002738995
-1.07062309484549
2.25015400571899
-1.62817115991866
-0.892878650439593
0.575205899987445
0.938065886458661
-1.33069625253561
-1.17939444340506
0.362921018256469
0.505667191470946
-1.04154700465205
1.30752799030072
-1.11854534444152
1.26591786494327
-0.195872912343549
-1.13215214360542
1.49355696824185
1.56814169672407
-1.8501512287652
1.48689078556779
-0.722055567400657
1.32488963961707
2.02204177863388
0.594567073986758
0.083224681447459
1.06004747715458
-1.10442920302486
1.48594422180411
-0.425933599756388
0.937719522196486
1.42496559477049
-0.971045654712363
1.52749065711172
-0.820662536345472
0.109614321613638
1.15849607946724
0.534089541568747
-0.0835843459370443
-0.578785601466735
1.5885467722807
-1.2691385985085
1.66577593736028
-0.264974516752674
1.53487425294548
0.75473270102572
0.674325290257594
-0.307120454190552
-0.481154913979581
-1.74113491765188
-1.94506294001618
1.13339198019092
-1.10381183279
0.149790751963432
-0.152815512675138
1.49099291274908
-0.304506523380691
-1.14044227226845
-0.360106699950822
0.732109585352445
1.81392784542319
-0.177522068189255
-0.7054740609323
0.999818680987763
1.1427021473473
1.38570129577239
2.08115506637257
1.8710686723941
2.11795037594636
-0.576351429889169
0.3233032852159
-0.22899260947198
-0.809070619400528
-0.433608392213849
-1.14552064699744
0.405754594019414
-0.984415684456203
-0.786443437410387
-2.26801878456606
-2.32442060075577
1.13198345398004
-1.03389972085922
1.04942147668241
0.520834238170969
-0.415130802657026
-2.32194708562147
0.402100807117669
0.623743277213284
-0.711700342552206
-0.945829136892717
-1.95623137047346
0.0589717118295937
-1.61510241613416
0.542232913485006
-0.856177351387264
-0.77216393333155
0.665260633754705
-1.91015551317665
-0.0475886726160163
1.49091832469598
0.396626988613419
0.308282358616668
-0.336698393063789
-2.08399487295148
-0.733557129763474
-0.885796046878484
-0.951601537439703
0.475253498175985
-1.27392376893085
0.599314519792077
-0.365946375657986
-2.00150651775785
-1.89206354432593
-0.81614246706356
0.663926973991872
0.0467050595175746
-0.116629218380353
0.212339336553805
-0.565605130690781
0.476053076280732
-1.5055822630218
-1.36406997934173
-0.718099902718375
1.59218922797227
-0.489705159556915
1.26754819008873
0.821923041167633
-0.0431423438913852
-0.686260910092974
-1.08261911528307
-0.69035846865287
-1.87201284611226
-1.85882563323659
1.08344335066315
-1.65020849911971
-1.52516689501943
-0.887765002850334
-0.738250299700652
-1.95675159616245
0.668115821978131
-0.754318992958553
-0.902239290486201
-0.106681435418633
-1.80938538341289
1.17079096062611
-1.15778777150334
0.703586506984935
1.93929007087801
1.35195167891306
1.56457888314714
-1.99460962600755
-0.755850390883093
1.01216776064232
-0.247625260729168
0.238705127611153
0.67818866236051
-1.64939154668217
1.13166562986172
-1.21677835807986
-0.75587511004688
0.662865340087035
1.48622393397904
-0.910051058470295
0.426273736369923
1.33893342657896
0.898325634607266
-1.35877952322307
-1.34142262085407
-1.96306557020315
-1.60291289705919
-1.13706597459366
0.571370401685764
-0.442077567075415
-0.978782904790148
1.84047426462196
-0.564328483568658
0.742611456076899
-0.908714519305487
-1.57860173265385
-1.33191738805357
-1.4360383168962
0.882632970289622
0.604905977195551
-0.250839793240111
-1.08800948927552
-1.93450807776978
-0.884180606754581
0.388799627492577
-1.155261776948
-0.328397161480224
-1.87577534833726
-0.0194306327120544
-1.5214719416208
0.799123513884434
-1.9947495181089
-0.240542926937594
-1.99218823201591
1.46704482821144
-1.14831880999185
-1.72753467398115
-1.79900824828027
0.0450091278390068
1.90235564108116
0.954864575972252
0.701644857740796
-0.565980027693314
1.68622717619232
-0.00904933456752888
-0.0880995253511236
-1.19696638882019
1.93557720628361
1.25932297262332
0.710267362515566
-1.88486097002628
-1.31983679315068
1.78023236979741
-1.11868204321651
1.34078873476982
-0.485716774354557
1.27344150434874
-0.217493758638154
0.252420849284353
1.81383915609393
0.365331591277072
-1.72713754872193
0.882364658118395
0.092842343306561
0.75879891904015
-0.984033386681245
0.0810171915595501
-0.572140251552751
1.27556662786546
-1.76039570931364
-1.85106705867269
-1.5329091397733
0.51895255526479
0.980277329208458
1.6500414012233
1.04751534901909
1.47797053841779
-1.6207352539621
1.12486872781295
-1.5231008471563
-1.95829538812781
-0.263974367763835
-1.13509832096058
1.27030200477238
-1.63661097159451
0.118960307035111
-1.77498188790632
-1.12186088372109
-1.33297696678572
-0.0472383974339992
-0.421760314340591
0.489959084657002
-0.0514290975646252
0.231169971745075
-0.462975950195909
0.682002124694177
1.8192801996224
1.34117762900012
-1.07257174284783
-1.02501594788628
1.83088328308933
1.37517386273256
-1.33998942158184
1.01971868193695
0.561334421188261
1.64804816974702
0.161210651584534
-1.20004495941105
-0.768723444439808
-1.70672661424928
0.0363126872276482
0.89417675831084
0.657637513548898
-0.224478303559347
1.77213454422175
-1.37069404095909
1.40796077223865
1.61206265334602
-0.270546685098925
-1.36016138799496
-1.20905149877493
-0.797121924719364
-1.23916328476703
-0.677194974700545
0.661364605026955
-0.341026143329696
0.518519957791325
-1.71221741648028
-0.556746720595633
-1.03196072347088
1.22823514939669
-1.86320709058233
1.45183648888573
0.149884675699232
-1.35398413024563
-1.33346925086038
-0.923984946181991
-0.154817002897531
-1.29103241641588
-1.28465914134153
1.95774965545058
1.42506307150473
1.64686256071872
-1.62625035253644
1.91644891533835
0.684062927348569
1.8323215711081
-1.82695079400528
0.459035427523328
-1.09228190923682
1.27404135245552
-1.79278245372362
-0.388275685900951
-1.71241035485287
-1.81596444911136
0.628005207808691
0.614337147499592
1.3372055531187
-1.64164592309
-1.09763943548204
-0.870471788044307
-0.126571931935182
1.35670176118459
-1.73676272096893
-0.93496176364597
-0.100480222190023
1.44234026942511
-1.49224716215033
-0.870494173313721
1.10560379508212
1.5532909052229
-0.437222224863815
0.903095069761898
-0.985887543757394
-1.31791104344554
-0.634114570279659
-0.443984485438086
-1.61291293223058
-0.593643890038898
1.97730167767839
-0.1733477144378
0.345470751796602
-0.171252844003613
-1.46446481135882
-0.306002075926402
1.02101760312031
0.525068595318621
1.1642468437386
-0.034150875189412
0.0180106619456835
0.0521936016400315
-0.261190499300691
-0.513171079807529
1.80660701906616
1.58581264670278
0.0843215873857597
-1.93163868967986
1.38362528168765
1.30871141110953
0.0169291375283751
1.24172265792346
1.32456873325844
1.04354337930844
1.3534316324412
-0.645572814459713
-0.288736422680661
-0.695877523485514
-1.40238814214356
1.60550068859267
0.818150121168304
-0.928010306753223
0.227250079730176
-0.0691505568424009
-1.61894760076839
1.07570827895576
0.78405746015909
-1.95531908793157
0.821166572543405
0.569239354957472
0.0440206332337207
1.37445118249136
-1.72190657431349
0.541903713039078
1.1114951647406
-0.946589806557908
-0.185518595476411
-1.92405114505629
1.09648805069574
-0.57170019046017
0.597767369168702
-0.702475880599802
0.172390232874262
-0.92162434334011
1.38942697243273
-1.26442098024507
0.502083552303763
1.30192737248816
0.475315523555183
1.1811080031009
1.98273434675426
-0.283104873394177
-0.0725432625378217
1.55874615514593
1.14769900364228
-1.05397903130109
1.82494352190986
1.80796005754171
-0.89422347903914
-1.26910125988959
-1.19824481345631
-1.6044277374493
-0.207067850946997
-1.95411654654399
-1.77814737953389
-1.86093735821504
1.03119119135095
-1.19169606330966
1.37542961312684
1.32771819733148
1.61428762009037
1.4087561404636
0.3978561851322
1.61885081907018
1.4130490151231
-0.804354893918989
1.59741442991616
1.10990811900322
0.191095275341104
0.444680608167116
1.79187649496606
-0.905119078310921
-1.48802961004137
-1.68545813509621
1.71287671331106
-1.93229248162517
1.99811266635526
-0.210901948832846
1.28172988068961
1.30736865506407
-0.537412228378513
-1.77697777733777
1.53904598912133
-0.0964158436251634
-0.18102713924281
-2.09915547348151
-0.645648203624339
-0.678852426370331
-0.732590080311022
0.847452974538394
1.55766847696445
1.58428520188491
0.51448797044375
-1.22295015504793
-1.40867549456891
-0.963070316201442
0.554447403114916
1.69923566062208
1.99458311533134
1.43310234847369
0.322716621107123
-1.4660068378032
0.125579373619137
0.188580836993082
0.882624478355232
-0.769545447573802
1.84237419769806
1.75086502124728
-0.988283452701234
1.89432503955854
-1.90204722595484
-0.649659971238174
-0.0248362737935027
2.05245085739802
-0.317870474050151
1.23692087058466
1.2564523535006
-0.825730503589256
-0.482754751698539
0.100520937159427
1.54322625770171
0.379512802404516
-0.120850361957946
0.484044804320036
1.42909520145949
-1.70420531909503
0.731874745381759
1.58929077862577
-1.61239302738003
0.397869885411104
-0.286425787297375
-1.77300724483519
-0.184824849384329
1.06566820807353
-1.14373397249322
-1.1659300728546
0.161968080241196
-0.83101496989386
1.0255982693813
-1.11372398474725
-1.43482694285613
-0.120618575126287
-1.24532617710152
-0.825312599939528
0.724499619346684
-0.0165130224586145
-0.209039139364659
0.274038466175175
1.25697744781794
-0.929852415383372
-0.338116250457887
-0.75361110979235
0.437909815668151
-0.15596828507187
-1.76578578074613
-1.6920472613339
0.939010675896363
1.66296917192643
1.16546522821173
0.0923286198973412
0.442030043058207
-1.9117489216672
0.946887849233823
0.0483846448932086
0.220692693930158
-1.76389000474061
1.86840907676908
0.648290333344588
0.952772616467565
-1.77729939022639
-0.764643087157211
0.508410858195236
0.413166716134749
-0.898435673842006
-0.656469029811696
-0.380492303311018
-0.306232838074292
-1.55764209967263
2.03145393746127
-0.528216334146963
0.453632580970619
-2.10534554408307
-1.18873607968952
1.59939155713548
-1.03003723321211
-1.26386156952615
-0.257407768006359
-2.30966925825476
0.626081080438172
-1.15438923402401
0.247086241407051
0.682969478738489
-0.204312752473252
-1.50785853248846
0.177970775391463
-1.33601997230279
0.889789609529037
0.566012680056377
1.22999363726716
0.619485427245958
0.330654346645141
0.856268387617585
1.09476329365333
0.515041946321834
2.04324770643336
1.49211656544465
0.954870417671774
-0.91754737989814
-1.49857641922159
0.784392088853454
0.591883366145601
0.137284948735332
1.45450177282492
-0.277727231967749
1.79578344363514
0.473406801330306
1.62539762823124
1.57379125263019
-1.03412878086315
-0.423815517322879
0.381237552925813
1.73227070223262
1.61759699526868
0.398613547018325
0.804691460130377
0.35656233339358
-1.30992993959762
-0.153698464014657
0.917714870034192
-1.34840584110658
0.36749024012756
0.786091716656789
-0.644818625911216
-0.598266059198191
1.11979649160438
1.11614055140703
-1.43697952732377
0.221074859351909
1.55545857499528
-0.321266372101387
-0.699674884604381
-1.4225029215309
1.77528065303645
-1.91244404468937
0.0155186426409529
-2.00638730878109
1.25021905800789
1.75446019442599
-1.18387179093966
1.55546922507537
-0.821490492038687
1.23995447359148
-0.372471800395455
-0.251921375806122
-1.86020978079277
0.510394532642454
1.52408789318702
-1.2341979409227
1.84786816887672
-0.585706878203004
0.601881413135363
-0.696158903916332
0.571085381010938
1.64951643454094
-1.83142360280127
1.64364949247133
-1.21330655349177
0.143941127804321
0.489762625919283
-1.70961155423929
-0.619771716607989
-0.310964859826319
-1.85310309467325
1.16799228446049
-1.81706821969192
-0.0502116612223178
-1.64105829239579
1.56570494264132
-1.2651447142091
0.305332263710529
1.31155658753267
-0.934492516092567
-1.07566352687639
1.28781258782899
1.48929930551922
0.984630383629158
-0.865642128615552
-2.05980103015736
-1.09352726485013
-1.26129137013523
1.54139352557387
-1.97979379660987
0.0183802589920318
-0.386336696450975
1.11598582668777
-2.17003731104908
0.0996124172230478
1.20380614693869
1.37462155883728
0.282770492543237
0.800841063459844
-1.05374028240821
-0.914629048949657
-1.86534861468481
-0.367233014247085
1.15578312435364
0.510013402483624
-0.0881772252326187
-1.201441553767
0.209849253394686
0.174073381799697
1.66784390075023
-2.00939073626982
-1.14646237777443
-0.0706957786188019
-0.580632101022131
-2.13458151943469
0.299839927003519
-1.91926664190021
-1.09999709013957
0.108401615917697
-1.87284069523977
-1.62234274661909
-0.454230534818244
-1.51368578023342
-0.868408221964421
1.19584931236209
-0.356218510124553
-2.34166623514697
1.35092456731657
0.932410849648194
-1.71083867028587
1.13409951360165
-0.601892461029868
0.63743950715342
-0.533331319963091
1.25114424305864
-1.67421933477781
-1.15333190216072
1.16548144082623
1.38302283583268
0.404041512619074
0.760438109079629
