-1.6044277374493
-0.207067850946997
-1.95411654654399
-1.77814737953389
-1.86093735821504
1.03119119135095
-1.19169606330966
1.37542961312684
1.32771819733148
1.61428762009037
1.4087561404636
0.3978561851322
1.61885081907018
1.4130490151231
-0.804354893918989
1.59741442991616
1.10990811900322
0.191095275341104
0.444680608167116
1.79187649496606
-0.905119078310921
-1.48802961004137
-1.68545813509621
1.71287671331106
-1.93229248162517
1.99811266635526
-0.210901948832846
1.28172988068961
1.30736865506407
-0.537412228378513
-1.77697777733777
1.53904598912133
-0.0964158436251634
-0.18102713924281
-2.09915547348151
-0.645648203624339
-0.678852426370331
-0.732590080311022
0.847452974538394
1.55766847696445
1.58428520188491
0.51448797044375
-1.22295015504793
-1.40867549456891
-0.963070316201442
0.554447403114916
1.69923566062208
1.99458311533134
1.43310234847369
0.322716621107123
-1.4660068378032
0.125579373619137
0.188580836993082
0.882624478355232
-0.769545447573802
1.84237419769806
1.75086502124728
-0.988283452701234
1.89432503955854
-1.90204722595484
-0.649659971238174
-0.0248362737935027
2.05245085739802
-0.317870474050151
1.23692087058466
1.2564523535006
-0.825730503589256
-0.482754751698539
0.100520937159427
1.54322625770171
0.379512802404516
-0.120850361957946
0.484044804320036
1.42909520145949
-1.70420531909503
0.731874745381759
1.58929077862577
-1.61239302738003
0.397869885411104
-0.286425787297375
-1.77300724483519
-0.184824849384329
1.06566820807353
-1.14373397249322
-1.1659300728546
0.161968080241196
-0.83101496989386
1.0255982693813
-1.11372398474725
-1.43482694285613
-0.120618575126287
-1.24532617710152
-0.825312599939528
0.724499619346684
-0.0165130224586145
-0.209039139364659
0.274038466175175
1.25697744781794
-0.929852415383372
-0.338116250457887
-0.75361110979235
0.437909815668151
-0.15596828507187
-1.76578578074613
-1.6920472613339
0.939010675896363
1.66296917192643
1.16546522821173
0.0923286198973412
0.442030043058207
-1.9117489216672
0.946887849233823
0.0483846448932086
0.220692693930158
-1.76389000474061
1.86840907676908
0.648290333344588
0.952772616467565
-1.77729939022639
-0.764643087157211
0.508410858195236
0.413166716134749
-0.898435673842006
-0.656469029811696
-0.380492303311018
-0.306232838074292
-1.55764209967263
2.03145393746127
-0.528216334146963
0.453632580970619
-2.10534554408307
-1.18873607968952
1.59939155713548
-1.03003723321211
-1.26386156952615
-0.257407768006359
-2.30966925825476
0.626081080438172
-1.15438923402401
0.247086241407051
0.682969478738489
-0.204312752473252
-1.50785853248846
0.177970775391463
-1.33601997230279
0.889789609529037
0.566012680056377
1.22999363726716
0.619485427245958
0.330654346645141
0.856268387617585
1.09476329365333
0.515041946321834
2.04324770643336
1.49211656544465
0.954870417671774
-0.91754737989814
-1.49857641922159
0.784392088853454
0.591883366145601
0.137284948735332
1.45450177282492
-0.277727231967749
1.79578344363514
0.473406801330306
1.62539762823124
1.57379125263019
-1.03412878086315
-0.423815517322879
0.381237552925813
1.73227070223262
1.61759699526868
0.398613547018325
0.804691460130377
0.35656233339358
-1.30992993959762
-0.153698464014657
0.917714870034192
-1.34840584110658
0.36749024012756
0.786091716656789
-0.644818625911216
-0.598266059198191
1.11979649160438
1.11614055140703
-1.43697952732377
0.221074859351909
1.55545857499528
-0.321266372101387
-0.699674884604381
-1.4225029215309
1.77528065303645
-1.91244404468937
0.0155186426409529
-2.00638730878109
1.25021905800789
1.75446019442599
-1.18387179093966
1.55546922507537
-0.821490492038687
1.23995447359148
-0.372471800395455
-0.251921375806122
-1.86020978079277
0.510394532642454
1.52408789318702
-1.2341979409227
1.84786816887672
-0.585706878203004
0.601881413135363
-0.696158903916332
0.571085381010938
1.64951643454094
-1.83142360280127
1.64364949247133
-1.21330655349177
0.143941127804321
0.489762625919283
-1.70961155423929
-0.619771716607989
-0.310964859826319
-1.85310309467325
1.16799228446049
-1.81706821969192
-0.0502116612223178
-1.64105829239579
1.56570494264132
-1.2651447142091
0.305332263710529
1.31155658753267
-0.934492516092567
-1.07566352687639
1.28781258782899
1.48929930551922
0.984630383629158
-0.865642128615552
-2.05980103015736
-1.09352726485013
-1.26129137013523
1.54139352557387
-1.97979379660987
0.0183802589920318
-0.386336696450975
1.11598582668777
-2.17003731104908
0.0996124172230478
1.20380614693869
1.37462155883728
0.282770492543237
0.800841063459844
-1.05374028240821
-0.914629048949657
-1.86534861468481
-0.367233014247085
1.15578312435364
0.510013402483624
-0.0881772252326187
-1.201441553767
0.209849253394686
0.174073381799697
1.66784390075023
-2.00939073626982
-1.14646237777443
-0.0706957786188019
-0.580632101022131
-2.13458151943469
0.299839927003519
-1.91926664190021
-1.09999709013957
0.108401615917697
-1.87284069523977
-1.62234274661909
-0.454230534818244
-1.51368578023342
-0.868408221964421
1.19584931236209
-0.356218510124553
-2.34166623514697
1.35092456731657
0.932410849648194
-1.71083867028587
1.13409951360165
-0.601892461029868
0.63743950715342
-0.533331319963091
1.25114424305864
-1.67421933477781
-1.15333190216072
1.16548144082623
1.38302283583268
0.404041512619074
0.760438109079629
