0.8317458263268
0.0416334522346869
-0.829772181786327
-1.87495839815582
0.947040719436286
-0.119531863325007
-1.41143873514603
0.27011294449293
-1.87045313663002
0.171183239623304
-0.863054296754861
-0.390867092722417
-1.47850683261454
0.04458579502299
-1.59163973058825
1.22378391816649
0.569835714718569
-0.645352990138019
0.083291361911573
1.61531877961604
2.15977865729106
1.63087914433436
-1.45037429557158
1.51275016522057
-0.194799258317433
-0.253394771827809
1.36227761044979
-1.66121631681971
-0.287854185135904
-1.88888875995921
1.58625121345837
1.60264715891279
-0.116869777131175
0.981732626609832
-1.8271451976269
1.58327367097876
-1.27987021654708
1.32276491054171
1.13247624570006
-1.43421822170997
0.760820534900578
-0.974001044926449
0.294379746583584
1.18741451156837
-1.35122373525897
-0.824819224052503
0.0960983077066841
-0.0468084278717847
1.84396397567952
0.195908116716402
0.604349355361
-0.573318465392036
-1.88392692520636
-0.87376232223756
0.161688606371739
1.23780114314712
-1.51412449787583
-0.113932670096742
0.228225567920931
-0.900369100389916
1.01844372623248
1.60706163220493
1.95064064891039
1.76778525710532
0.596504747542245
1.56755053418573
2.18459842072122
-1.40496714407812
0.0728516956538717
-1.31023688038495
0.803394561644716
0.954604085628515
-0.841658702114061
-0.444051678444486
-1.86289209054557
0.682024404101519
-0.909606514234147
0.198147779187079
0.968181315674943
-1.18518182650265
-1.87234031556411
-1.00413161626653
-0.667828618902273
-1.89484969795511
-0.181830558127367
0.0839998075543869
0.289022587156138
-1.54414272133757
-0.628607006595879
-1.50343993435859
1.04714266034851
0.641664580902763
-1.05218868683162
-0.00191869881427535
-0.312525790817496
1.21460608694798
-0.776883397754243
0.98112230610346
-1.40074119567702
-0.846496203414037
-0.943527948139755
-1.25837218330974
-1.57279645973574
0.839531329486138
1.37320631194262
1.84141744001074
-2.26170631776773
0.944250403945289
-1.66338928324079
1.64059461394545
0.515021189723611
0.670226273259962
0.884707635869095
-0.822357448859832
-1.03352130580351
-0.565216406044257
0.575272097953821
1.72655727908485
0.186345871526031
-1.54822343488572
-1.01521656729896
1.02616772915021
1.83360965348065
-0.721624065192441
-0.349892358091318
1.87611019919271
0.0913259663274878
1.29842323846148
1.94934760827737
-1.32719971274605
-0.48116571170491
-0.0869191159851044
-0.746588246063671
-0.388016349356958
1.81301418349586
1.11962868605003
-1.10016888015373
-0.252138999006786
-1.43915312825928
0.211588911414754
-0.141846361888971
0.678422500154582
1.68433002020774
-0.593946344301282
0.17738660291482
-1.08952921824885
2.03157154024966
1.5376011753054
-0.622168779047637
-1.36722089061189
-0.972900242746836
-0.545076156665578
-0.623253669327759
-1.86554276651823
-2.22978666960225
-0.722659491926679
-0.922786732917136
0.670322371809364
-0.728002971487714
1.25682901364874
-0.132505465051884
-1.02352246849033
1.5767527953391
1.6002901010908
-0.190127929247293
-1.65619681691108
-1.19130179214417
-1.30290353203346
-0.457918958539694
-0.603832084531355
-1.21128780799896
-1.72735523823258
0.967907764064905
1.82459848757112
0.269609981522707
0.424163841000974
1.78676141263955
0.0470708885473263
0.393974895173238
-1.10528989224174
-1.63454172318886
0.0609276636017887
-0.370996980161776
0.854912797777703
1.75234830137533
-2.25418358578318
-1.33841712721023
-0.624323948723204
-0.413996413133576
0.549702554028706
-0.0477683018250262
-0.286717062324156
-1.42671229636696
-1.18432802576999
-1.97410926987711
-1.25050423441574
0.527100624440174
-1.85778422404716
1.91653536502897
-0.172144752161233
2.02130278096529
0.627283106559986
0.208247181621138
-2.39618176397247
1.79531589882245
-1.22581278751466
0.235330908341321
-0.887633542973486
-0.0502531322850938
-0.0269213154870953
-0.290465394528042
1.6713226940914
-1.64643375516473
-1.82375866360711
1.38934598153361
1.48149053237391
1.5149426933528
-1.70156433754192
1.35831580354933
-0.111211190653478
1.61349810331841
0.953808951588784
1.41190176569282
0.848144273113573
1.52201648553088
0.239025277016551
1.24016715606273
-0.173197339496222
1.54087809415614
-0.905165895852966
1.47757712044853
1.25703086075625
-0.0198172052011619
-1.98336514536109
-0.944886938158415
-0.720634374113549
-1.98199949595978
-0.166579867532654
1.4000663006395
1.78041593996338
-0.858718238432124
0.85631502604007
1.47085078716603
1.15233645512494
-2.62446396780955
-0.0943441706535132
-0.98726626477242
-1.61521610857727
-0.295379883312981
-1.66474849020737
-0.670985582416981
0.155746051787016
-1.99113811690164
-0.720115371197629
0.403292069733331
-1.79671468924992
0.559457598592631
0.285832341865051
-2.40174606920396
-1.58957721426733
-1.43865901804347
-1.69892542361523
-0.799574974549941
-1.94312796536685
-0.0483500972345418
-0.212536983999621
-1.18023754576722
1.04336672759511
1.08639638513355
-0.441579548711549
0.738903165921037
-0.570981372745845
-1.14614140581763
-1.37248784069856
-2.08228179663145
-1.81669274408502
1.17508392901974
-1.78694522097257
0.515283882307976
-1.37902955077317
-1.36234005250639
0.55008292291636
0.64471789110018
0.330294853419535
1.18355581913827
-1.12560993317033
0.458212199527244
1.25978083350931
-0.178005311201289
-1.82335512173457
-0.420276067186092
-0.97954030143351
