0.336789969834073
0.41478307575256
0.71056547699167
0.680961169099367
-1.49164305944335
0.692736125597916
-2.4630262258955
-2.01732597896683
1.8908782264076
-0.110844296593761
2.06185071390923
-0.365433812255622
-0.526778717115177
-0.587132098475778
-1.06982050360061
-0.112616999251939
-0.0180719975794098
-0.317289369290046
0.789882012802835
-1.60562572853134
-0.355180036219192
1.36403744556601
-1.86943451710985
-0.336756714931559
-0.818568494079666
0.665423748199102
1.78911737223513
-0.497932171232301
0.391845630497061
-1.61634447854595
1.67701251114061
1.5606612746197
-2.23223940119942
1.75817605425248
1.51068054834683
-0.233463960246672
-0.0953776556520851
-0.836673641329947
-1.87682576185042
-0.922423309994349
1.04297705424521
0.380810831041865
0.782763533399754
-1.31426539233909
-1.37457097252875
0.388658046846034
-0.525960319497893
1.42493284329109
0.307406589087908
1.73345902761996
0.143931087503131
-1.64545723599383
1.88217173953262
-1.33170297911613
-2.01174762828393
-1.46340166171232
-0.0308138773597128
-1.20892635478169
-0.840149473381122
0.226947646198683
0.695492633016444
0.931967622942646
0.0931829398694225
1.53978794175647
0.530743657819322
-1.94883787063378
-0.931233431514469
-0.678524470168762
-0.538835798370969
0.962626724788205
1.93794767581205
-1.78877881569001
-0.0960197098398166
-0.533649933451584
-0.397188328506286
-1.62834637831549
-1.84590125481465
1.0865744192914
-0.818405191437102
0.476840214399207
-1.15419317599793
-2.15779086859628
1.05262942720031
0.298403218461621
-0.278164720501942
1.1213020709234
-1.87009750648991
1.6611427381826
1.75607164745731
1.0651742663621
-1.87035201541499
-1.22213232148081
1.79654659926949
-0.231272536925836
0.307431023079251
-2.07711587072653
-2.35160008738062
0.847308964678594
0.392851803656557
-1.44933644201153
-0.794613670555871
1.7359625851835
-0.365721538921361
1.26881340840036
1.70952160605188
0.374647575241167
0.456545253556865
-0.308177973082766
0.490192134571101
1.53383034668446
-1.91325068826259
0.371039548730305
-1.92322873207493
0.48099623844345
-0.97817010985441
0.495379176236016
1.75089732120553
1.7532295528887
-0.194895864493872
0.719738546117851
-1.66632251117684
-0.78312377769177
0.116258007959716
0.901256384112761
0.980059079203962
0.607709551136126
-2.16105873862153
1.33031343986816
0.776203736958811
-0.401859079360529
-1.96782643888375
-1.07291120540899
-1.00348972269118
-1.7275419765375
-0.90904133045955
-0.818387272464689
0.190066078974603
-2.01085962854084
0.91018312075655
1.27578350221326
-1.48798226539887
0.104745545819986
-1.5927761510525
-2.4458728125572
1.01931955705029
0.0539972149665546
-1.63221638890602
-0.657339247464744
-1.64067825687685
2.08815787911986
-1.11127196935181
-1.71888639727807
-0.808029142570545
1.44866458077325
-1.85157652570715
1.91051459742536
-0.440080217195941
0.859810023055085
-1.87003464976874
-0.807029327209901
0.46287068910477
0.785034820188231
0.999245544903535
-1.10958545489924
1.04003092207568
1.2524996358831
-0.298314935192344
2.09011343755018
-0.691304612326701
-1.78420686890625
1.8887665886909
1.4677885167115
-1.11773300188502
0.144032872403432
0.874809161480741
-0.321563457178057
-1.09709285214072
-0.0848172273174452
1.91764970695384
-0.736655729314652
0.0232897844168933
0.24349694173456
0.829203843326738
0.928612396049367
-1.12111018004122
2.00259101475999
1.83377842103862
-1.19945560039891
1.56046860295189
-0.613044560349788
0.970252697481542
1.60343925144755
2.39111402436516
0.157017079201014
-1.65702664482423
-0.578181192257472
0.914810621086309
1.14897218299571
-1.3603752724718
1.4234823991787
-1.50355818892899
-1.08026930633695
1.87177088094577
-1.8869833277341
-1.94637175775149
-0.757767211764246
1.05380505735921
1.1268306329271
-1.01020309761196
0.453221551966828
0.877693764843167
1.43591530475603
1.29159057270391
0.558189341643668
0.332964188660974
1.07453984024339
-1.96129399350608
-1.84389222130923
-2.25145979532127
1.69745258132142
0.812828195268187
-1.84585588486879
-2.09717062916511
1.7612133896397
-0.714705750076706
-2.05330980936008
0.922921978623691
1.01459492527071
-0.65332644648172
-0.781938506989971
1.24200256254937
-0.351992537281586
-0.210201650128148
-1.88705739238965
-0.698008638730704
-0.794133989646376
0.642989156868226
0.802447341356052
0.899910787541223
1.77828101157153
-2.26255124726109
-1.10619757195167
1.47105299756916
-1.36804682831013
0.218346159793279
1.31033998878081
-1.66623441709225
-1.48346862021027
0.596704317129249
-0.86064267578255
-1.00752637552705
0.680466303003946
1.1648222322856
-1.94001484843287
-1.56719202850323
1.23403605525127
-1.60058821055069
-2.57612588109166
0.784991844032481
1.42341532473734
-0.588758412240711
-1.22565554437757
-0.62831668483302
0.979592149362105
0.913864093961537
-1.46214723367654
-0.485905152896611
0.219280810094617
-0.187177983803575
-0.605882997321696
-1.54813275636166
-1.50302382331272
-0.823686214478745
-2.01996207964342
1.15386560030708
-0.152607221502915
-1.86675242538468
0.269234106570999
-1.22617003383205
-0.925894796408804
0.782744652457676
0.448576620455578
0.971253152293889
1.95483306986865
-2.24806710931084
-1.91162078485639
-0.28980879258447
-1.49149438520937
1.30880515924812
-1.08502879363538
-2.041669016976
0.628835206798028
